digraph Tree {
node [shape=box] ;
0 [label="Price <= 92.5\ngini = 0.479\nsamples = 320\nvalue = [193, 127]"] ;
1 [label="ShelveLoc <= 0.5\ngini = 0.305\nsamples = 48\nvalue = [9, 39]"] ;
0 -> 1 [labeldistance=2.5, labelangle=45, headlabel="True"] ;
2 [label="Income <= 57.0\ngini = 0.497\nsamples = 13\nvalue = [6, 7]"] ;
1 -> 2 ;
3 [label="gini = 0.0\nsamples = 5\nvalue = [5, 0]"] ;
2 -> 3 ;
4 [label="Population <= 120.0\ngini = 0.219\nsamples = 8\nvalue = [1, 7]"] ;
2 -> 4 ;
5 [label="gini = 0.0\nsamples = 1\nvalue = [1, 0]"] ;
4 -> 5 ;
6 [label="gini = 0.0\nsamples = 7\nvalue = [0, 7]"] ;
4 -> 6 ;
7 [label="Age <= 56.5\ngini = 0.157\nsamples = 35\nvalue = [3, 32]"] ;
1 -> 7 ;
8 [label="gini = 0.0\nsamples = 21\nvalue = [0, 21]"] ;
7 -> 8 ;
9 [label="CompPrice <= 117.0\ngini = 0.337\nsamples = 14\nvalue = [3, 11]"] ;
7 -> 9 ;
10 [label="Age <= 57.5\ngini = 0.153\nsamples = 12\nvalue = [1, 11]"] ;
9 -> 10 ;
11 [label="Education <= 13.0\ngini = 0.5\nsamples = 2\nvalue = [1, 1]"] ;
10 -> 11 ;
12 [label="gini = 0.0\nsamples = 1\nvalue = [0, 1]"] ;
11 -> 12 ;
13 [label="gini = 0.0\nsamples = 1\nvalue = [1, 0]"] ;
11 -> 13 ;
14 [label="gini = 0.0\nsamples = 10\nvalue = [0, 10]"] ;
10 -> 14 ;
15 [label="gini = 0.0\nsamples = 2\nvalue = [2, 0]"] ;
9 -> 15 ;
16 [label="Advertising <= 6.5\ngini = 0.438\nsamples = 272\nvalue = [184, 88]"] ;
0 -> 16 [labeldistance=2.5, labelangle=-45, headlabel="False"] ;
17 [label="CompPrice <= 144.5\ngini = 0.287\nsamples = 144\nvalue = [119, 25]"] ;
16 -> 17 ;
18 [label="Age <= 50.5\ngini = 0.211\nsamples = 125\nvalue = [110, 15]"] ;
17 -> 18 ;
19 [label="Price <= 100.5\ngini = 0.37\nsamples = 49\nvalue = [37, 12]"] ;
18 -> 19 ;
20 [label="Advertising <= 4.5\ngini = 0.278\nsamples = 6\nvalue = [1, 5]"] ;
19 -> 20 ;
21 [label="gini = 0.0\nsamples = 5\nvalue = [0, 5]"] ;
20 -> 21 ;
22 [label="gini = 0.0\nsamples = 1\nvalue = [1, 0]"] ;
20 -> 22 ;
23 [label="CompPrice <= 131.5\ngini = 0.273\nsamples = 43\nvalue = [36, 7]"] ;
19 -> 23 ;
24 [label="gini = 0.124\nsamples = 30\nvalue = [28, 2]"] ;
23 -> 24 ;
25 [label="gini = 0.473\nsamples = 13\nvalue = [8, 5]"] ;
23 -> 25 ;
26 [label="Price <= 102.5\ngini = 0.076\nsamples = 76\nvalue = [73, 3]"] ;
18 -> 26 ;
27 [label="Education <= 10.5\ngini = 0.245\nsamples = 21\nvalue = [18, 3]"] ;
26 -> 27 ;
28 [label="gini = 0.0\nsamples = 1\nvalue = [0, 1]"] ;
27 -> 28 ;
29 [label="gini = 0.18\nsamples = 20\nvalue = [18, 2]"] ;
27 -> 29 ;
30 [label="gini = 0.0\nsamples = 55\nvalue = [55, 0]"] ;
26 -> 30 ;
31 [label="Price <= 151.5\ngini = 0.499\nsamples = 19\nvalue = [9, 10]"] ;
17 -> 31 ;
32 [label="ShelveLoc <= 0.5\ngini = 0.408\nsamples = 14\nvalue = [4, 10]"] ;
31 -> 32 ;
33 [label="gini = 0.0\nsamples = 3\nvalue = [3, 0]"] ;
32 -> 33 ;
34 [label="Age <= 68.0\ngini = 0.165\nsamples = 11\nvalue = [1, 10]"] ;
32 -> 34 ;
35 [label="gini = 0.0\nsamples = 10\nvalue = [0, 10]"] ;
34 -> 35 ;
36 [label="gini = 0.0\nsamples = 1\nvalue = [1, 0]"] ;
34 -> 36 ;
37 [label="gini = 0.0\nsamples = 5\nvalue = [5, 0]"] ;
31 -> 37 ;
38 [label="ShelveLoc <= 0.5\ngini = 0.5\nsamples = 128\nvalue = [65, 63]"] ;
16 -> 38 ;
39 [label="CompPrice <= 137.5\ngini = 0.142\nsamples = 26\nvalue = [24, 2]"] ;
38 -> 39 ;
40 [label="gini = 0.0\nsamples = 20\nvalue = [20, 0]"] ;
39 -> 40 ;
41 [label="Price <= 126.0\ngini = 0.444\nsamples = 6\nvalue = [4, 2]"] ;
39 -> 41 ;
42 [label="gini = 0.0\nsamples = 2\nvalue = [0, 2]"] ;
41 -> 42 ;
43 [label="gini = 0.0\nsamples = 4\nvalue = [4, 0]"] ;
41 -> 43 ;
44 [label="ShelveLoc <= 1.5\ngini = 0.481\nsamples = 102\nvalue = [41, 61]"] ;
38 -> 44 ;
45 [label="Income <= 35.0\ngini = 0.185\nsamples = 29\nvalue = [3, 26]"] ;
44 -> 45 ;
46 [label="Age <= 63.0\ngini = 0.48\nsamples = 5\nvalue = [3, 2]"] ;
45 -> 46 ;
47 [label="gini = 0.444\nsamples = 3\nvalue = [1, 2]"] ;
46 -> 47 ;
48 [label="gini = 0.0\nsamples = 2\nvalue = [2, 0]"] ;
46 -> 48 ;
49 [label="gini = 0.0\nsamples = 24\nvalue = [0, 24]"] ;
45 -> 49 ;
50 [label="Price <= 109.5\ngini = 0.499\nsamples = 73\nvalue = [38, 35]"] ;
44 -> 50 ;
51 [label="CompPrice <= 106.5\ngini = 0.33\nsamples = 24\nvalue = [5, 19]"] ;
50 -> 51 ;
52 [label="gini = 0.0\nsamples = 4\nvalue = [4, 0]"] ;
51 -> 52 ;
53 [label="gini = 0.095\nsamples = 20\nvalue = [1, 19]"] ;
51 -> 53 ;
54 [label="Advertising <= 13.5\ngini = 0.44\nsamples = 49\nvalue = [33, 16]"] ;
50 -> 54 ;
55 [label="gini = 0.252\nsamples = 27\nvalue = [23, 4]"] ;
54 -> 55 ;
56 [label="gini = 0.496\nsamples = 22\nvalue = [10, 12]"] ;
54 -> 56 ;
}